<?xml version="1.0"?>
<MethodSetup Method="MLP::MLP">
  <GeneralInfo>
    <Info name="TMVA Release" value="4.2.1 [262657]"/>
    <Info name="ROOT Release" value="6.10/09 [395785]"/>
    <Info name="Creator" value="fsimone"/>
    <Info name="Date" value="Fri Nov  1 15:31:04 2019"/>
    <Info name="Host" value="Linux cmsbuild31.cern.ch 2.6.32-696.10.2.el6.x86_64 #1 SMP Thu Sep 14 16:35:02 CEST 2017 x86_64 x86_64 x86_64 GNU/Linux"/>
    <Info name="Dir" value="/lustrehome/fsimone/MVA_Cate"/>
    <Info name="Training events" value="19939"/>
    <Info name="TrainingTime" value="1.03726516e+02"/>
    <Info name="AnalysisType" value="Classification"/>
  </GeneralInfo>
  <Options>
    <Option name="NCycles" modified="Yes">600</Option>
    <Option name="HiddenLayers" modified="Yes">N+5</Option>
    <Option name="NeuronType" modified="Yes">tanh</Option>
    <Option name="RandomSeed" modified="No">1</Option>
    <Option name="EstimatorType" modified="No">CE</Option>
    <Option name="NeuronInputType" modified="No">sum</Option>
    <Option name="V" modified="Yes">False</Option>
    <Option name="VerbosityLevel" modified="No">Default</Option>
    <Option name="VarTransform" modified="Yes">N</Option>
    <Option name="H" modified="Yes">True</Option>
    <Option name="CreateMVAPdfs" modified="No">False</Option>
    <Option name="IgnoreNegWeightsInTraining" modified="No">False</Option>
    <Option name="TrainingMethod" modified="No">BP</Option>
    <Option name="LearningRate" modified="No">2.000000e-02</Option>
    <Option name="DecayRate" modified="No">1.000000e-02</Option>
    <Option name="TestRate" modified="Yes">5</Option>
    <Option name="EpochMonitoring" modified="No">False</Option>
    <Option name="Sampling" modified="No">1.000000e+00</Option>
    <Option name="SamplingEpoch" modified="No">1.000000e+00</Option>
    <Option name="SamplingImportance" modified="No">1.000000e+00</Option>
    <Option name="SamplingTraining" modified="No">True</Option>
    <Option name="SamplingTesting" modified="No">False</Option>
    <Option name="ResetStep" modified="No">50</Option>
    <Option name="Tau" modified="No">3.000000e+00</Option>
    <Option name="BPMode" modified="No">sequential</Option>
    <Option name="BatchSize" modified="No">-1</Option>
    <Option name="ConvergenceImprove" modified="No">1.000000e-30</Option>
    <Option name="ConvergenceTests" modified="No">-1</Option>
    <Option name="UseRegulator" modified="Yes">False</Option>
    <Option name="UpdateLimit" modified="No">10000</Option>
    <Option name="CalculateErrors" modified="No">False</Option>
    <Option name="WeightRange" modified="No">1.000000e+00</Option>
  </Options>
  <Variables NVar="10">
    <Variable VarIndex="0" Expression="Pmu3" Label="Pmu3" Title="Pmu3" Unit="" Internal="Pmu3" Type="F" Min="3.31125665e+00" Max="3.79746246e+01"/>
    <Variable VarIndex="1" Expression="cLP" Label="cLP" Title="cLP" Unit="" Internal="cLP" Type="F" Min="1.95776094e-02" Max="1.30968613e+04"/>
    <Variable VarIndex="2" Expression="tKink" Label="tKink" Title="tKink" Unit="" Internal="tKink" Type="F" Min="2.20175743e+00" Max="8.93405457e+02"/>
    <Variable VarIndex="3" Expression="segmComp" Label="segmComp" Title="segmComp" Unit="" Internal="segmComp" Type="F" Min="0.00000000e+00" Max="1.00000000e+00"/>
    <Variable VarIndex="4" Expression="fv_nC" Label="fv_nC" Title="fv_nC" Unit="" Internal="fv_nC" Type="F" Min="3.34216784e-05" Max="4.99997282e+00"/>
    <Variable VarIndex="5" Expression="fv_dphi3D" Label="fv_dphi3D" Title="fv_dphi3D" Unit="" Internal="fv_dphi3D" Type="F" Min="0.00000000e+00" Max="3.11888814e+00"/>
    <Variable VarIndex="6" Expression="fv_d3Dsig" Label="fv_d3Dsig" Title="fv_d3Dsig" Unit="" Internal="fv_d3Dsig" Type="F" Min="1.31643727e-01" Max="7.36012061e+03"/>
    <Variable VarIndex="7" Expression="d0sig" Label="d0sig" Title="d0sig" Unit="" Internal="d0sig" Type="F" Min="2.62429618e-04" Max="8.39660416e+01"/>
    <Variable VarIndex="8" Expression="mindca_iso" Label="mindca_iso" Title="mindca_iso" Unit="" Internal="mindca_iso" Type="F" Min="1.15226003e-05" Max="8.08875635e-03"/>
    <Variable VarIndex="9" Expression="nMatchesMu3" Label="nMatchesMu3" Title="nMatchesMu3" Unit="" Internal="nMatchesMu3" Type="F" Min="0.00000000e+00" Max="5.00000000e+00"/>
  </Variables>
  <Spectators NSpec="1">
    <Spectator SpecIndex="0" Expression="tripletMass" Label="tripletMass" Title="F" Unit="" Internal="tripletMass" Type="F" Min="1.65003085e+00" Max="1.89999127e+00"/>
  </Spectators>
  <Classes NClass="2">
    <Class Name="Signal" Index="0"/>
    <Class Name="Background" Index="1"/>
  </Classes>
  <Transformations NTransformations="1">
    <Transform Name="Normalize">
      <Selection>
        <Input NInputs="10">
          <Input Type="Variable" Label="Pmu3" Expression="Pmu3"/>
          <Input Type="Variable" Label="cLP" Expression="cLP"/>
          <Input Type="Variable" Label="tKink" Expression="tKink"/>
          <Input Type="Variable" Label="segmComp" Expression="segmComp"/>
          <Input Type="Variable" Label="fv_nC" Expression="fv_nC"/>
          <Input Type="Variable" Label="fv_dphi3D" Expression="fv_dphi3D"/>
          <Input Type="Variable" Label="fv_d3Dsig" Expression="fv_d3Dsig"/>
          <Input Type="Variable" Label="d0sig" Expression="d0sig"/>
          <Input Type="Variable" Label="mindca_iso" Expression="mindca_iso"/>
          <Input Type="Variable" Label="nMatchesMu3" Expression="nMatchesMu3"/>
        </Input>
        <Output NOutputs="10">
          <Output Type="Variable" Label="Pmu3" Expression="Pmu3"/>
          <Output Type="Variable" Label="cLP" Expression="cLP"/>
          <Output Type="Variable" Label="tKink" Expression="tKink"/>
          <Output Type="Variable" Label="segmComp" Expression="segmComp"/>
          <Output Type="Variable" Label="fv_nC" Expression="fv_nC"/>
          <Output Type="Variable" Label="fv_dphi3D" Expression="fv_dphi3D"/>
          <Output Type="Variable" Label="fv_d3Dsig" Expression="fv_d3Dsig"/>
          <Output Type="Variable" Label="d0sig" Expression="d0sig"/>
          <Output Type="Variable" Label="mindca_iso" Expression="mindca_iso"/>
          <Output Type="Variable" Label="nMatchesMu3" Expression="nMatchesMu3"/>
        </Output>
      </Selection>
      <Class ClassIndex="0">
        <Ranges>
          <Range Index="0" Min="3.3458068370819092e+00" Max="3.7974624633789062e+01"/>
          <Range Index="1" Min="1.9577609375119209e-02" Max="1.2509943847656250e+03"/>
          <Range Index="2" Min="2.2017574310302734e+00" Max="5.8863830566406250e+02"/>
          <Range Index="3" Min="0.0000000000000000e+00" Max="1.0000000000000000e+00"/>
          <Range Index="4" Min="3.3421678381273523e-05" Max="4.9976897239685059e+00"/>
          <Range Index="5" Min="0.0000000000000000e+00" Max="2.4379923343658447e+00"/>
          <Range Index="6" Min="8.2357370853424072e-01" Max="7.3601206054687500e+03"/>
          <Range Index="7" Min="8.2470022607594728e-04" Max="8.3966041564941406e+01"/>
          <Range Index="8" Min="1.1522600289026741e-05" Max="8.0191986635327339e-03"/>
          <Range Index="9" Min="0.0000000000000000e+00" Max="5.0000000000000000e+00"/>
        </Ranges>
      </Class>
      <Class ClassIndex="1">
        <Ranges>
          <Range Index="0" Min="3.3112566471099854e+00" Max="3.0167427062988281e+01"/>
          <Range Index="1" Min="1.3708239793777466e-01" Max="1.3096861328125000e+04"/>
          <Range Index="2" Min="2.7450716495513916e+00" Max="8.9340545654296875e+02"/>
          <Range Index="3" Min="0.0000000000000000e+00" Max="1.0000000000000000e+00"/>
          <Range Index="4" Min="3.8820162881165743e-03" Max="4.9999728202819824e+00"/>
          <Range Index="5" Min="2.2156967315822840e-04" Max="3.1188881397247314e+00"/>
          <Range Index="6" Min="1.3164372742176056e-01" Max="7.0905419921875000e+03"/>
          <Range Index="7" Min="2.6242961757816374e-04" Max="5.9746746063232422e+01"/>
          <Range Index="8" Min="1.1821285625046585e-05" Max="8.0887563526630402e-03"/>
          <Range Index="9" Min="0.0000000000000000e+00" Max="5.0000000000000000e+00"/>
        </Ranges>
      </Class>
      <Class ClassIndex="2">
        <Ranges>
          <Range Index="0" Min="3.3112566471099854e+00" Max="3.7974624633789062e+01"/>
          <Range Index="1" Min="1.9577609375119209e-02" Max="1.3096861328125000e+04"/>
          <Range Index="2" Min="2.2017574310302734e+00" Max="8.9340545654296875e+02"/>
          <Range Index="3" Min="0.0000000000000000e+00" Max="1.0000000000000000e+00"/>
          <Range Index="4" Min="3.3421678381273523e-05" Max="4.9999728202819824e+00"/>
          <Range Index="5" Min="0.0000000000000000e+00" Max="3.1188881397247314e+00"/>
          <Range Index="6" Min="1.3164372742176056e-01" Max="7.3601206054687500e+03"/>
          <Range Index="7" Min="2.6242961757816374e-04" Max="8.3966041564941406e+01"/>
          <Range Index="8" Min="1.1522600289026741e-05" Max="8.0887563526630402e-03"/>
          <Range Index="9" Min="0.0000000000000000e+00" Max="5.0000000000000000e+00"/>
        </Ranges>
      </Class>
    </Transform>
  </Transformations>
  <MVAPdfs/>
  <Weights>
    <Layout NLayers="3">
      <Layer Index="0" NNeurons="11">
        <Neuron NSynapses="15">
          9.6697782086564066e-01 4.0738738746779166e+00 1.3132106392393896e+00 2.4130932144001643e-01 -3.5955394749922811e+00 -1.5135147874932600e+00 3.4716086431792033e-02 -2.3058477317536061e-01 8.3581998739669183e-01 -1.8173067371130696e+00 -2.1801755686338660e+00 4.3325978237625989e-01 -1.1032904419790110e+00 -2.1933579528379989e+00 -1.7829999637682423e+00 
        </Neuron>
        <Neuron NSynapses="15">
          2.0656646646834727e+00 3.5556897501864295e+00 -1.8965868597464810e+00 3.3144292856040320e+00 3.0908647465794301e+00 -4.0084227292866927e+00 -4.8975503467785092e-01 2.0378562570076935e+00 -8.7244298851093938e-01 -2.1892074391136247e+00 -9.7261199619960881e-01 1.0896769077546207e+00 4.2408492026431004e+00 -1.0487697797901227e+01 7.6454738300967751e-01 
        </Neuron>
        <Neuron NSynapses="15">
          -4.1554124034568268e-01 6.6049017570386930e+00 4.6058941823911054e-01 3.0691085719588758e+00 2.3648834203324980e+00 -1.0818839145472401e+00 -6.9841625536353569e-01 4.1411330519855127e+00 -2.5970240646422005e-01 1.1716495044442952e-01 4.8188777706216973e-01 -7.8311426270787865e-01 1.1652122420210651e+01 1.7163359875937856e+00 4.2130099739114718e-01 
        </Neuron>
        <Neuron NSynapses="15">
          -4.3072470017710796e+00 1.4998291345506620e-01 -1.2827755383849856e-01 1.2207054508968861e-01 -8.4781711313555925e-04 -4.4373500788848641e-01 -7.1740531943733615e-02 -1.1397912319940224e+00 1.4504796168068623e+00 -1.0544236900132138e+00 -1.1610147926889745e+00 -1.1259568491166430e+00 7.5456898631376867e-03 6.2144315323248511e-01 -8.5800802767146356e-01 
        </Neuron>
        <Neuron NSynapses="15">
          1.7886888587195707e-01 2.7700044333595469e-01 8.0674346649457426e-02 -1.7266063369254374e+00 2.2153733000079519e+00 -1.7417838332746571e-01 -4.9979007358767263e-01 7.6510939824619495e-01 2.3982561739968541e-01 -8.5253068210458915e-01 -6.5954982786315763e-01 -9.5972715095161221e-01 -9.1682648946319212e-03 -8.4808630498787660e-02 -2.0565927050322830e-02 
        </Neuron>
        <Neuron NSynapses="15">
          1.8106969075712603e-01 -1.7298001394571065e+00 -1.5695215957828735e+01 -1.5417196887789064e+00 -7.3960351679094938e-01 6.4199434992296645e-01 -3.4460059494210660e-01 -3.0817845974005798e-01 -1.0038527703052129e+00 -1.2223534678391537e+00 -4.1639767667095279e-01 5.2252967317592414e-01 2.7813109367596822e-01 1.2517202015347804e+00 -7.3131097073008255e-01 
        </Neuron>
        <Neuron NSynapses="15">
          -1.1948957871983594e+00 -5.5938951761201920e+00 1.3858250369628196e+01 -5.9886040940189220e+00 -3.9976058067201303e-01 3.2506752597640944e+00 -5.8395850941340366e-01 -3.1045173006674571e+00 -8.7344126731122507e-01 -7.9363249121612767e-01 -2.1272457745645932e+00 6.6195794351848927e-02 -4.8114848360492255e+00 6.2380679548291083e+00 -4.3032211655888097e-01 
        </Neuron>
        <Neuron NSynapses="15">
          2.7015509970215636e+00 -4.5937884287915063e+00 -2.5534367660397335e+00 -4.5810399199972612e-01 2.8723493318329957e-01 -3.1864254505713130e-01 1.1628180929452478e+00 -4.6245815468214080e-01 5.5639904415037789e-01 -2.1394664156788150e+00 1.0730310869764805e+00 1.9253323319780344e+00 -8.1684038486418071e+00 1.1924691378231953e+00 -2.2561682802736769e+00 
        </Neuron>
        <Neuron NSynapses="15">
          -6.2074801607227137e-01 -4.1098243817038211e-03 -1.4986968963481734e-01 4.3996189923979037e+00 -1.8867681925315745e+00 -1.2253842018790440e-01 -5.4106550185019586e-01 1.5521286234483547e+00 -1.2946607672182839e+00 3.9200267576666820e-01 -3.0156047165480354e-01 -3.3905309659869554e+00 -1.9595567953847545e-01 2.6429337395134250e-01 2.1649597353677184e+00 
        </Neuron>
        <Neuron NSynapses="15">
          1.6264858852728385e+00 -3.1076101223305652e-01 5.3992305849257440e-02 5.0175318495590715e-01 3.1969418920883552e-01 2.7406344961143563e+00 -2.7885121701295773e-01 -1.7221031542437877e+00 -1.2921575601637338e-02 -1.0130005267561086e+00 8.9302377699377788e-01 7.4337841707635299e-01 2.8613831275783541e-01 -9.1847861918857264e-03 -1.8497015474114781e-01 
        </Neuron>
        <Neuron NSynapses="15">
          9.6213224357456950e-01 1.7734955529172305e+00 -4.9548274654585649e+00 6.1444487145706606e-01 2.0130342582431004e-01 -1.1693073527557814e-01 -7.8398791049698380e-01 2.9663432592075307e+00 -1.8361989769283462e-02 -4.8889760952742678e-01 2.2859095362273081e+00 -3.5022797048102994e-01 1.5086695519751083e+00 -1.2095966166246779e+00 7.2970292147439531e-01 
        </Neuron>
      </Layer>
      <Layer Index="1" NNeurons="16">
        <Neuron NSynapses="1">
          -8.2522263207071467e-01 
        </Neuron>
        <Neuron NSynapses="1">
          -7.5670085326967484e-01 
        </Neuron>
        <Neuron NSynapses="1">
          3.7877180879297687e+00 
        </Neuron>
        <Neuron NSynapses="1">
          -7.7344315342151415e-01 
        </Neuron>
        <Neuron NSynapses="1">
          -7.4596696711011212e-01 
        </Neuron>
        <Neuron NSynapses="1">
          1.5960272066006633e+00 
        </Neuron>
        <Neuron NSynapses="1">
          7.4585039378936968e-01 
        </Neuron>
        <Neuron NSynapses="1">
          -3.4415744929800662e-01 
        </Neuron>
        <Neuron NSynapses="1">
          1.8325411128176607e+00 
        </Neuron>
        <Neuron NSynapses="1">
          7.6254645929777476e-01 
        </Neuron>
        <Neuron NSynapses="1">
          -2.0528349257892242e+00 
        </Neuron>
        <Neuron NSynapses="1">
          2.1520927051362607e-01 
        </Neuron>
        <Neuron NSynapses="1">
          -1.1725384765399642e+00 
        </Neuron>
        <Neuron NSynapses="1">
          3.2885275182763851e+00 
        </Neuron>
        <Neuron NSynapses="1">
          -2.3692093564792147e+00 
        </Neuron>
        <Neuron NSynapses="1">
          -1.8882748853827873e+00 
        </Neuron>
      </Layer>
      <Layer Index="2" NNeurons="1">
        <Neuron NSynapses="0"/>
      </Layer>
    </Layout>
  </Weights>
</MethodSetup>
