<?xml version="1.0"?>
<MethodSetup Method="MLP::MLP">
  <GeneralInfo>
    <Info name="TMVA Release" value="4.2.1 [262657]"/>
    <Info name="ROOT Release" value="6.10/09 [395785]"/>
    <Info name="Creator" value="fsimone"/>
    <Info name="Date" value="Wed Oct 30 12:15:12 2019"/>
    <Info name="Host" value="Linux cmsbuild31.cern.ch 2.6.32-696.10.2.el6.x86_64 #1 SMP Thu Sep 14 16:35:02 CEST 2017 x86_64 x86_64 x86_64 GNU/Linux"/>
    <Info name="Dir" value="/lustrehome/fsimone/MVA_Cate"/>
    <Info name="Training events" value="30378"/>
    <Info name="TrainingTime" value="1.60454640e+02"/>
    <Info name="AnalysisType" value="Classification"/>
  </GeneralInfo>
  <Options>
    <Option name="NCycles" modified="Yes">600</Option>
    <Option name="HiddenLayers" modified="Yes">N+5</Option>
    <Option name="NeuronType" modified="Yes">tanh</Option>
    <Option name="RandomSeed" modified="No">1</Option>
    <Option name="EstimatorType" modified="No">CE</Option>
    <Option name="NeuronInputType" modified="No">sum</Option>
    <Option name="V" modified="Yes">False</Option>
    <Option name="VerbosityLevel" modified="No">Default</Option>
    <Option name="VarTransform" modified="Yes">N</Option>
    <Option name="H" modified="Yes">True</Option>
    <Option name="CreateMVAPdfs" modified="No">False</Option>
    <Option name="IgnoreNegWeightsInTraining" modified="No">False</Option>
    <Option name="TrainingMethod" modified="No">BP</Option>
    <Option name="LearningRate" modified="No">2.000000e-02</Option>
    <Option name="DecayRate" modified="No">1.000000e-02</Option>
    <Option name="TestRate" modified="Yes">5</Option>
    <Option name="EpochMonitoring" modified="No">False</Option>
    <Option name="Sampling" modified="No">1.000000e+00</Option>
    <Option name="SamplingEpoch" modified="No">1.000000e+00</Option>
    <Option name="SamplingImportance" modified="No">1.000000e+00</Option>
    <Option name="SamplingTraining" modified="No">True</Option>
    <Option name="SamplingTesting" modified="No">False</Option>
    <Option name="ResetStep" modified="No">50</Option>
    <Option name="Tau" modified="No">3.000000e+00</Option>
    <Option name="BPMode" modified="No">sequential</Option>
    <Option name="BatchSize" modified="No">-1</Option>
    <Option name="ConvergenceImprove" modified="No">1.000000e-30</Option>
    <Option name="ConvergenceTests" modified="No">-1</Option>
    <Option name="UseRegulator" modified="Yes">False</Option>
    <Option name="UpdateLimit" modified="No">10000</Option>
    <Option name="CalculateErrors" modified="No">False</Option>
    <Option name="WeightRange" modified="No">1.000000e+00</Option>
  </Options>
  <Variables NVar="10">
    <Variable VarIndex="0" Expression="Pmu3" Label="Pmu3" Title="Pmu3" Unit="" Internal="Pmu3" Type="F" Min="3.49010611e+00" Max="4.24625092e+01"/>
    <Variable VarIndex="1" Expression="cLP" Label="cLP" Title="cLP" Unit="" Internal="cLP" Type="F" Min="5.50247841e-02" Max="2.79186211e+04"/>
    <Variable VarIndex="2" Expression="tKink" Label="tKink" Title="tKink" Unit="" Internal="tKink" Type="F" Min="2.06403399e+00" Max="8.92418152e+02"/>
    <Variable VarIndex="3" Expression="segmComp" Label="segmComp" Title="segmComp" Unit="" Internal="segmComp" Type="F" Min="0.00000000e+00" Max="1.00000000e+00"/>
    <Variable VarIndex="4" Expression="fv_nC" Label="fv_nC" Title="fv_nC" Unit="" Internal="fv_nC" Type="F" Min="9.14110802e-04" Max="4.99899483e+00"/>
    <Variable VarIndex="5" Expression="fv_dphi3D" Label="fv_dphi3D" Title="fv_dphi3D" Unit="" Internal="fv_dphi3D" Type="F" Min="0.00000000e+00" Max="3.12609649e+00"/>
    <Variable VarIndex="6" Expression="fv_d3Dsig" Label="fv_d3Dsig" Title="fv_d3Dsig" Unit="" Internal="fv_d3Dsig" Type="F" Min="7.62008801e-02" Max="1.74793762e+03"/>
    <Variable VarIndex="7" Expression="d0sig" Label="d0sig" Title="d0sig" Unit="" Internal="d0sig" Type="F" Min="4.33932037e-05" Max="5.61841774e+01"/>
    <Variable VarIndex="8" Expression="mindca_iso" Label="mindca_iso" Title="mindca_iso" Unit="" Internal="mindca_iso" Type="F" Min="1.08330551e-05" Max="2.28997283e-02"/>
    <Variable VarIndex="9" Expression="nMatchesMu3" Label="nMatchesMu3" Title="nMatchesMu3" Unit="" Internal="nMatchesMu3" Type="F" Min="0.00000000e+00" Max="8.00000000e+00"/>
  </Variables>
  <Spectators NSpec="1">
    <Spectator SpecIndex="0" Expression="tripletMass" Label="tripletMass" Title="F" Unit="" Internal="tripletMass" Type="F" Min="1.65001547e+00" Max="1.89999950e+00"/>
  </Spectators>
  <Classes NClass="2">
    <Class Name="Signal" Index="0"/>
    <Class Name="Background" Index="1"/>
  </Classes>
  <Transformations NTransformations="1">
    <Transform Name="Normalize">
      <Selection>
        <Input NInputs="10">
          <Input Type="Variable" Label="Pmu3" Expression="Pmu3"/>
          <Input Type="Variable" Label="cLP" Expression="cLP"/>
          <Input Type="Variable" Label="tKink" Expression="tKink"/>
          <Input Type="Variable" Label="segmComp" Expression="segmComp"/>
          <Input Type="Variable" Label="fv_nC" Expression="fv_nC"/>
          <Input Type="Variable" Label="fv_dphi3D" Expression="fv_dphi3D"/>
          <Input Type="Variable" Label="fv_d3Dsig" Expression="fv_d3Dsig"/>
          <Input Type="Variable" Label="d0sig" Expression="d0sig"/>
          <Input Type="Variable" Label="mindca_iso" Expression="mindca_iso"/>
          <Input Type="Variable" Label="nMatchesMu3" Expression="nMatchesMu3"/>
        </Input>
        <Output NOutputs="10">
          <Output Type="Variable" Label="Pmu3" Expression="Pmu3"/>
          <Output Type="Variable" Label="cLP" Expression="cLP"/>
          <Output Type="Variable" Label="tKink" Expression="tKink"/>
          <Output Type="Variable" Label="segmComp" Expression="segmComp"/>
          <Output Type="Variable" Label="fv_nC" Expression="fv_nC"/>
          <Output Type="Variable" Label="fv_dphi3D" Expression="fv_dphi3D"/>
          <Output Type="Variable" Label="fv_d3Dsig" Expression="fv_d3Dsig"/>
          <Output Type="Variable" Label="d0sig" Expression="d0sig"/>
          <Output Type="Variable" Label="mindca_iso" Expression="mindca_iso"/>
          <Output Type="Variable" Label="nMatchesMu3" Expression="nMatchesMu3"/>
        </Output>
      </Selection>
      <Class ClassIndex="0">
        <Ranges>
          <Range Index="0" Min="4.1288847923278809e+00" Max="4.1098144531250000e+01"/>
          <Range Index="1" Min="5.5024784058332443e-02" Max="6.2618096923828125e+02"/>
          <Range Index="2" Min="2.3674561977386475e+00" Max="2.3146037292480469e+02"/>
          <Range Index="3" Min="0.0000000000000000e+00" Max="1.0000000000000000e+00"/>
          <Range Index="4" Min="9.1411080211400986e-04" Max="4.9966030120849609e+00"/>
          <Range Index="5" Min="0.0000000000000000e+00" Max="3.0531961917877197e+00"/>
          <Range Index="6" Min="1.1036319285631180e-01" Max="1.6614165039062500e+03"/>
          <Range Index="7" Min="4.3393203668529168e-05" Max="5.6184177398681641e+01"/>
          <Range Index="8" Min="1.0833055057446472e-05" Max="2.2899728268384933e-02"/>
          <Range Index="9" Min="0.0000000000000000e+00" Max="8.0000000000000000e+00"/>
        </Ranges>
      </Class>
      <Class ClassIndex="1">
        <Ranges>
          <Range Index="0" Min="3.4901061058044434e+00" Max="4.2462509155273438e+01"/>
          <Range Index="1" Min="5.6638959795236588e-02" Max="2.7918621093750000e+04"/>
          <Range Index="2" Min="2.0640339851379395e+00" Max="8.9241815185546875e+02"/>
          <Range Index="3" Min="0.0000000000000000e+00" Max="1.0000000000000000e+00"/>
          <Range Index="4" Min="4.4317473657429218e-03" Max="4.9989948272705078e+00"/>
          <Range Index="5" Min="0.0000000000000000e+00" Max="3.1260964870452881e+00"/>
          <Range Index="6" Min="7.6200880110263824e-02" Max="1.7479376220703125e+03"/>
          <Range Index="7" Min="6.2774517573416233e-04" Max="4.1945461273193359e+01"/>
          <Range Index="8" Min="1.4453161384153645e-05" Max="2.0601363852620125e-02"/>
          <Range Index="9" Min="0.0000000000000000e+00" Max="8.0000000000000000e+00"/>
        </Ranges>
      </Class>
      <Class ClassIndex="2">
        <Ranges>
          <Range Index="0" Min="3.4901061058044434e+00" Max="4.2462509155273438e+01"/>
          <Range Index="1" Min="5.5024784058332443e-02" Max="2.7918621093750000e+04"/>
          <Range Index="2" Min="2.0640339851379395e+00" Max="8.9241815185546875e+02"/>
          <Range Index="3" Min="0.0000000000000000e+00" Max="1.0000000000000000e+00"/>
          <Range Index="4" Min="9.1411080211400986e-04" Max="4.9989948272705078e+00"/>
          <Range Index="5" Min="0.0000000000000000e+00" Max="3.1260964870452881e+00"/>
          <Range Index="6" Min="7.6200880110263824e-02" Max="1.7479376220703125e+03"/>
          <Range Index="7" Min="4.3393203668529168e-05" Max="5.6184177398681641e+01"/>
          <Range Index="8" Min="1.0833055057446472e-05" Max="2.2899728268384933e-02"/>
          <Range Index="9" Min="0.0000000000000000e+00" Max="8.0000000000000000e+00"/>
        </Ranges>
      </Class>
    </Transform>
  </Transformations>
  <MVAPdfs/>
  <Weights>
    <Layout NLayers="3">
      <Layer Index="0" NNeurons="11">
        <Neuron NSynapses="15">
          5.2320428043267131e-01 4.1355206296677777e-01 -3.1828105448886773e-01 -7.4360585773520791e-03 -1.8304924449613051e+00 -3.7416051756167192e+00 9.8789166949773022e-01 -1.3033102911594099e-01 -2.0454940376503270e+00 -1.5454623590825094e+00 -2.4439151285972200e+00 1.1625042814210672e-01 -2.5866399801355500e+00 -1.3629459580169317e-01 4.3156344257113489e-02 
        </Neuron>
        <Neuron NSynapses="15">
          3.2819982246794961e+00 6.6651468730108352e+00 5.5558891492637761e+00 -4.3539103537342544e-01 1.1394966622272413e+00 -2.5810305374795767e-01 -5.1785112560538789e+00 5.5973175566528468e+00 1.2484704044206636e+00 -3.7711640675903837e+00 -9.9644590877135408e-01 3.0394199694388218e+00 -1.8210050805938205e-01 -1.6366166000364670e+00 6.8293803740788250e-01 
        </Neuron>
        <Neuron NSynapses="15">
          -1.4345378677020085e-02 1.3148445933566601e+01 1.6599698831759693e+00 2.2738742899723499e+00 1.3526312889784173e+00 -1.2490940418474781e+00 -1.3837261539186778e+00 9.7240020737674620e+00 -1.3619369871311260e+00 5.7483482344642294e+00 4.6544754450787194e+00 -1.2549062835973559e+00 1.1236645978086814e+01 -3.8127758841584858e-01 8.5031105384245709e-01 
        </Neuron>
        <Neuron NSynapses="15">
          -2.8340296749334501e+00 -3.3296776936379835e-02 7.7084775588037002e-02 -1.4291654733308112e+00 -8.7247502115094147e-02 -4.1161882907957448e-01 7.7220668703770903e+00 -8.3321676554502858e-02 -1.5226521064440980e-02 -1.1562550413590069e+00 -2.0888800494904936e+00 -1.1566482592184119e-01 -3.0869578170018643e-02 1.5468916323441487e-01 7.9326485270649741e-02 
        </Neuron>
        <Neuron NSynapses="15">
          4.6512741210346278e-02 2.0779926216709985e-01 7.5673310594948293e-02 6.8538710912176271e-01 -3.8199765218725612e-01 -5.9044436585290994e-01 -3.2977098562917423e-01 -2.0469851240979794e-01 4.0674169174201280e+00 -2.1767749635002276e-01 4.8241009764360759e-01 -1.0551995389708340e+00 3.3041518091763028e-01 1.7368759950354087e-01 1.1681335886490303e+00 
        </Neuron>
        <Neuron NSynapses="15">
          -3.7850610429856386e-02 -1.5117645924328960e-01 -2.2283879054998081e+01 -9.2554287335322089e-02 -1.5713295734051233e-01 -1.1825882528167792e-01 2.0764813295326916e-02 -3.4411165050486079e+00 -2.2534632593741863e-01 -3.3274835902745165e-01 2.6883105279158243e-01 9.7377678449000159e-04 6.3196056650826749e-01 -2.2428225137162261e-01 -9.4810354657090645e-01 
        </Neuron>
        <Neuron NSynapses="15">
          -1.3941007531805893e+00 -1.5606251047264308e+01 8.2789791875496714e+00 -3.3643931445243420e+00 -6.5018292124416832e-01 2.7157274017355246e+00 -1.1986676374226641e+00 -1.2497845499412698e+01 -3.7798942483674236e+00 -4.8876138128576496e-01 -1.8630308749511386e+00 1.0110099315175805e+00 8.3907955361112818e-01 2.6702635667256400e+00 8.8774462203471993e-01 
        </Neuron>
        <Neuron NSynapses="15">
          -7.6667860456471990e-02 -4.7345441649206910e+00 -2.0725791786933527e+00 -8.1229511155640838e-02 2.2345600950909986e-01 -2.2919248183848171e+00 4.2704895820792899e-01 7.5342275729538027e-02 2.1539450493480419e+00 -2.0519042802662169e+00 9.8902260594131897e-01 9.1271097525034606e-01 -7.3780434710364649e+00 1.4704593385285538e+00 -1.5297961971395382e+00 
        </Neuron>
        <Neuron NSynapses="15">
          -2.9159911641862241e-01 -2.2699987823841994e-01 -1.3662404041869519e-01 4.1072971330952095e+00 3.5068626280944232e-01 -4.6833207500012064e-01 7.0055899785757395e-02 4.9071502131879818e-01 -3.1570282816663742e+00 1.9269182511037526e+00 -9.2376593484894443e-01 -7.1374023902281900e+00 8.9649751327997096e-01 -1.8928712333708517e+00 1.1014598382421399e+00 
        </Neuron>
        <Neuron NSynapses="15">
          9.6793968135117325e-01 -8.9637019557907593e-02 -1.8201839826988814e-01 -4.7277276830302051e-01 4.6638678706156289e-01 2.2633061440873421e+00 1.2931138466371102e+00 -4.5682620052998824e-01 1.2475116007753781e+00 3.6983637963515481e-01 2.0906598670198334e-01 -6.0061191996472502e-02 -2.7333003781928644e-01 6.5459309586580958e-02 -6.0746209255543381e-02 
        </Neuron>
        <Neuron NSynapses="15">
          -5.6382319793079183e-01 -6.4832428138171849e-01 -9.2768722167906432e+00 1.9788336068236378e+00 5.0343319550196095e-02 -2.8237331336099993e+00 9.0410688295230757e-01 3.0136919445085220e-01 -1.8727606569379296e+00 1.8450785372459890e+00 2.5454032050497819e+00 -3.6681354285144008e+00 2.3385550258610799e+00 -2.1070808296232627e-01 1.1936003448969832e+00 
        </Neuron>
      </Layer>
      <Layer Index="1" NNeurons="16">
        <Neuron NSynapses="1">
          -1.2120322303943680e+00 
        </Neuron>
        <Neuron NSynapses="1">
          -1.1493133040952972e+00 
        </Neuron>
        <Neuron NSynapses="1">
          1.6851638747339730e+00 
        </Neuron>
        <Neuron NSynapses="1">
          -2.7400627582307546e-01 
        </Neuron>
        <Neuron NSynapses="1">
          -5.3513437345180215e-01 
        </Neuron>
        <Neuron NSynapses="1">
          6.5573690254244221e-01 
        </Neuron>
        <Neuron NSynapses="1">
          7.7656720172842164e-01 
        </Neuron>
        <Neuron NSynapses="1">
          -7.3682103849365788e-01 
        </Neuron>
        <Neuron NSynapses="1">
          5.5969777450052582e-01 
        </Neuron>
        <Neuron NSynapses="1">
          -1.4330562999288201e+00 
        </Neuron>
        <Neuron NSynapses="1">
          -6.3911339451630500e-01 
        </Neuron>
        <Neuron NSynapses="1">
          5.9690974617266002e-01 
        </Neuron>
        <Neuron NSynapses="1">
          -8.5287923433860402e-01 
        </Neuron>
        <Neuron NSynapses="1">
          -1.2411946582350013e-01 
        </Neuron>
        <Neuron NSynapses="1">
          -4.0904844735505252e-01 
        </Neuron>
        <Neuron NSynapses="1">
          -1.1379966139512923e+00 
        </Neuron>
      </Layer>
      <Layer Index="2" NNeurons="1">
        <Neuron NSynapses="0"/>
      </Layer>
    </Layout>
  </Weights>
</MethodSetup>
